digraph Tree {
node [shape=box, style="rounded", color="black", fontname=helvetica] ;
edge [fontname=helvetica] ;
0 [label="latitude <= -4.6\nmse = 2449.6\nsamples = 6326\nvalue = 20.0"] ;
1 [label="longitude <= -177.6\nmse = 30288.6\nsamples = 259\nvalue = 118.3"] ;
0 -> 1 [labeldistance=2.5, labelangle=45, headlabel="True"] ;
2 [label="latitude <= -27.8\nmse = 35838.9\nsamples = 28\nvalue = 467.6"] ;
1 -> 2 ;
3 [label="longitude <= -179.6\nmse = 5742.3\nsamples = 4\nvalue = 73.0"] ;
2 -> 3 ;
4 [label="mse = 0.0\nsamples = 1\nvalue = 187.8"] ;
3 -> 4 ;
5 [label="latitude <= -33.4\nmse = 144.0\nsamples = 3\nvalue = 23.9"] ;
3 -> 5 ;
6 [label="mse = 0.0\nsamples = 2\nvalue = 10.0"] ;
5 -> 6 ;
7 [label="mse = 0.0\nsamples = 1\nvalue = 34.2"] ;
5 -> 7 ;
8 [label="latitude <= -22.5\nmse = 1171.5\nsamples = 24\nvalue = 553.4"] ;
2 -> 8 ;
9 [label="latitude <= -23.0\nmse = 1629.8\nsamples = 2\nvalue = 474.6"] ;
8 -> 9 ;
10 [label="mse = 0.0\nsamples = 1\nvalue = 503.1"] ;
9 -> 10 ;
11 [label="mse = 0.0\nsamples = 1\nvalue = 417.5"] ;
9 -> 11 ;
12 [label="Unix Time <= 1627797760.0\nmse = 675.4\nsamples = 22\nvalue = 558.9"] ;
8 -> 12 ;
13 [label="mse = 551.0\nsamples = 15\nvalue = 570.3"] ;
12 -> 13 ;
14 [label="mse = 294.3\nsamples = 7\nvalue = 539.7"] ;
12 -> 14 ;
15 [label="longitude <= 179.3\nmse = 8839.3\nsamples = 231\nvalue = 66.8"] ;
1 -> 15 ;
16 [label="latitude <= -25.3\nmse = 5864.7\nsamples = 228\nvalue = 59.9"] ;
15 -> 16 ;
17 [label="longitude <= 174.0\nmse = 1227.0\nsamples = 139\nvalue = 35.0"] ;
16 -> 17 ;
18 [label="mse = 834.5\nsamples = 137\nvalue = 32.3"] ;
17 -> 18 ;
19 [label="mse = 103.5\nsamples = 2\nvalue = 185.4"] ;
17 -> 19 ;
20 [label="longitude <= -176.7\nmse = 10595.9\nsamples = 89\nvalue = 98.3"] ;
16 -> 20 ;
21 [label="mse = 11191.4\nsamples = 3\nvalue = 430.4"] ;
20 -> 21 ;
22 [label="mse = 5676.5\nsamples = 86\nvalue = 84.2"] ;
20 -> 22 ;
23 [label="longitude <= 179.5\nmse = 3107.7\nsamples = 3\nvalue = 500.6"] ;
15 -> 23 ;
24 [label="mse = 0.0\nsamples = 1\nvalue = 614.1"] ;
23 -> 24 ;
25 [label="longitude <= 179.8\nmse = 636.8\nsamples = 2\nvalue = 477.9"] ;
23 -> 25 ;
26 [label="mse = 0.0\nsamples = 1\nvalue = 508.8"] ;
25 -> 26 ;
27 [label="mse = -0.0\nsamples = 1\nvalue = 457.3"] ;
25 -> 27 ;
28 [label="latitude <= 58.8\nmse = 717.8\nsamples = 6067\nvalue = 15.5"] ;
0 -> 28 [labeldistance=2.5, labelangle=-45, headlabel="False"] ;
29 [label="depth <= 4.0\nmse = 473.3\nsamples = 5172\nvalue = 11.8"] ;
28 -> 29 ;
30 [label="longitude <= -155.4\nmse = 177.6\nsamples = 4914\nvalue = 10.0"] ;
29 -> 30 ;
31 [label="depth <= 1.4\nmse = 415.2\nsamples = 1187\nvalue = 20.9"] ;
30 -> 31 ;
32 [label="mse = 57.5\nsamples = 445\nvalue = 7.1"] ;
31 -> 32 ;
33 [label="mse = 446.7\nsamples = 742\nvalue = 29.4"] ;
31 -> 33 ;
34 [label="longitude <= -66.3\nmse = 51.0\nsamples = 3727\nvalue = 6.5"] ;
30 -> 34 ;
35 [label="mse = 41.7\nsamples = 3691\nvalue = 6.3"] ;
34 -> 35 ;
36 [label="mse = 578.2\nsamples = 36\nvalue = 27.0"] ;
34 -> 36 ;
37 [label="Unix Time <= 1629191424.0\nmse = 4646.0\nsamples = 258\nvalue = 44.6"] ;
29 -> 37 ;
38 [label="longitude <= 122.7\nmse = 4092.8\nsamples = 253\nvalue = 41.7"] ;
37 -> 38 ;
39 [label="mse = 1549.4\nsamples = 179\nvalue = 31.9"] ;
38 -> 39 ;
40 [label="mse = 8966.6\nsamples = 74\nvalue = 62.9"] ;
38 -> 40 ;
41 [label="longitude <= -30.8\nmse = 11417.8\nsamples = 5\nvalue = 180.9"] ;
37 -> 41 ;
42 [label="mse = 492.0\nsamples = 3\nvalue = 66.2"] ;
41 -> 42 ;
43 [label="mse = 1208.8\nsamples = 2\nvalue = 272.7"] ;
41 -> 43 ;
44 [label="longitude <= -149.4\nmse = 1593.2\nsamples = 895\nvalue = 36.1"] ;
28 -> 44 ;
45 [label="latitude <= 63.3\nmse = 1852.6\nsamples = 505\nvalue = 52.2"] ;
44 -> 45 ;
46 [label="depth <= 0.8\nmse = 1687.1\nsamples = 402\nvalue = 62.0"] ;
45 -> 46 ;
47 [label="mse = 341.8\nsamples = 35\nvalue = 11.4"] ;
46 -> 47 ;
48 [label="mse = 1556.1\nsamples = 367\nvalue = 66.6"] ;
46 -> 48 ;
49 [label="longitude <= -150.1\nmse = 579.9\nsamples = 103\nvalue = 12.7"] ;
45 -> 49 ;
50 [label="mse = 38.3\nsamples = 92\nvalue = 7.4"] ;
49 -> 50 ;
51 [label="mse = 2909.9\nsamples = 11\nvalue = 64.0"] ;
49 -> 51 ;
52 [label="longitude <= -145.2\nmse = 514.1\nsamples = 390\nvalue = 15.6"] ;
44 -> 52 ;
53 [label="longitude <= -145.3\nmse = 672.6\nsamples = 266\nvalue = 20.2"] ;
52 -> 53 ;
54 [label="mse = 431.6\nsamples = 264\nvalue = 19.1"] ;
53 -> 54 ;
55 [label="mse = 11988.5\nsamples = 2\nvalue = 115.9"] ;
53 -> 55 ;
56 [label="grouped_type <= 0.5\nmse = 38.8\nsamples = 124\nvalue = 5.8"] ;
52 -> 56 ;
57 [label="mse = 0.0\nsamples = 19\nvalue = 0.0"] ;
56 -> 57 ;
58 [label="mse = 38.7\nsamples = 105\nvalue = 6.7"] ;
56 -> 58 ;
}